Language model created by QuickLM on Thu Apr 10 03:02:39 EDT 2014
Copyright (c) 1996-2010 Carnegie Mellon University and Alexander I. Rudnicky

The model is in standard ARPA format, designed by Doug Paul while he was at MITRE.

The code that was used to produce this language model is available in Open Source.
Please visit http://www.speech.cs.cmu.edu/tools/ for more information

The (fixed) discount mass is 0.5. The backoffs are computed using the ratio method.
This model based on a corpus of 48 sentences and 49 words

\data\
ngram 1=49
ngram 2=99
ngram 3=88

\1-grams:
-0.8846 </s> -0.3010
-0.8846 <s> -0.2349
-2.5658 ABORT -0.2403
-2.2648 AT -0.2362
-2.2648 BACK -0.2403
-2.0887 BACKWARD -0.2403
-2.5658 CANCEL -0.2403
-1.9638 COME -0.2817
-2.5658 CONTINUE -0.2987
-2.2648 DOWN -0.2403
-2.5658 FACE -0.2403
-2.5658 FASTER -0.2403
-2.5658 FOLLOW -0.2975
-2.0887 FORWARD -0.2403
-2.5658 FREEZE -0.2403
-2.5658 FULL -0.2963
-1.7877 GO -0.2780
-2.5658 HALF -0.2963
-2.5658 HALT -0.2403
-2.2648 HELP -0.2362
-2.5658 HOUR -0.2403
-2.5658 IS -0.2998
-2.5658 IT -0.2403
-2.5658 KILL -0.2403
-1.8669 LEFT -0.2403
-2.5658 LOOK -0.2987
-2.2648 LOOKING -0.2376
-2.0887 ME -0.2403
-1.8669 MOVE -0.2793
-2.5658 NOW -0.2403
-2.5658 OFF -0.2403
-2.5658 PANIC -0.2403
-2.5658 PAUSE -0.2987
-2.5658 QUARTER -0.2963
-1.8669 RIGHT -0.2403
-2.2648 ROTATE -0.2891
-2.5658 SHUT -0.2987
-2.5658 SLOW -0.2987
-2.5658 SLOWER -0.2403
-2.2648 SPEECH -0.2403
-1.9638 SPEED -0.2390
-2.0887 STOP -0.2362
-2.5658 STRAIGHT -0.2403
-2.2648 TIME -0.2390
-2.0887 TURN -0.2879
-2.5658 UP -0.2403
-2.5658 WHAT -0.2987
-2.5658 WHO -0.2998
-2.5658 YOU -0.2987

\2-grams:
-1.9823 <s> ABORT 0.0000
-1.9823 <s> CANCEL 0.0000
-1.3802 <s> COME 0.0000
-1.9823 <s> CONTINUE 0.0000
-1.9823 <s> FACE 0.0000
-1.9823 <s> FASTER 0.0000
-1.9823 <s> FOLLOW 0.0000
-1.9823 <s> FREEZE 0.0000
-1.9823 <s> FULL 0.0000
-1.2041 <s> GO 0.0000
-1.9823 <s> HALF 0.0000
-1.9823 <s> HALT 0.0000
-1.6812 <s> HELP 0.0000
-1.9823 <s> HOUR 0.0000
-1.9823 <s> KILL 0.0000
-1.9823 <s> LOOK 0.0000
-1.2833 <s> MOVE 0.0000
-1.9823 <s> PANIC 0.0000
-1.9823 <s> PAUSE 0.0000
-1.9823 <s> QUARTER 0.0000
-1.6812 <s> ROTATE 0.0000
-1.9823 <s> SHUT 0.0000
-1.9823 <s> SLOW 0.0000
-1.9823 <s> SLOWER 0.0000
-1.9823 <s> SPEED -0.2430
-1.5051 <s> STOP 0.0000
-1.9823 <s> TIME -0.1761
-1.5051 <s> TURN 0.0000
-1.9823 <s> WHAT 0.0000
-1.9823 <s> WHO 0.0000
-0.3010 ABORT </s> -0.3010
-0.6021 AT </s> -0.3010
-0.6021 AT ME 0.0000
-0.3010 BACK </s> -0.3010
-0.3010 BACKWARD </s> -0.3010
-0.3010 CANCEL </s> -0.3010
-0.9031 COME BACKWARD 0.0000
-0.9031 COME FORWARD 0.0000
-0.9031 COME LEFT 0.0000
-0.9031 COME RIGHT 0.0000
-0.3010 CONTINUE SPEECH 0.0000
-0.3010 DOWN </s> -0.3010
-0.3010 FACE </s> -0.3010
-0.3010 FASTER </s> -0.3010
-0.3010 FOLLOW ME 0.0000
-0.3010 FORWARD </s> -0.3010
-0.3010 FREEZE </s> -0.3010
-0.3010 FULL SPEED -0.0969
-1.0792 GO BACK 0.0000
-1.0792 GO BACKWARD 0.0000
-1.0792 GO FORWARD 0.0000
-1.0792 GO LEFT 0.0000
-1.0792 GO RIGHT 0.0000
-1.0792 GO STRAIGHT 0.0000
-0.3010 HALF SPEED -0.0969
-0.3010 HALT </s> -0.3010
-0.6021 HELP </s> -0.3010
-0.6021 HELP ME 0.0000
-0.3010 HOUR </s> -0.3010
-0.3010 IS IT 0.0000
-0.3010 IT </s> -0.3010
-0.3010 KILL </s> -0.3010
-0.3010 LEFT </s> -0.3010
-0.3010 LOOK AT -0.1761
-0.6021 LOOKING </s> -0.3010
-0.6021 LOOKING AT -0.1761
-0.3010 ME </s> -0.3010
-1.0000 MOVE BACK 0.0000
-1.0000 MOVE BACKWARD 0.0000
-1.0000 MOVE FORWARD 0.0000
-1.0000 MOVE LEFT 0.0000
-1.0000 MOVE RIGHT 0.0000
-0.3010 NOW </s> -0.3010
-0.3010 OFF </s> -0.3010
-0.3010 PANIC </s> -0.3010
-0.3010 PAUSE SPEECH 0.0000
-0.3010 QUARTER SPEED -0.0969
-0.3010 RIGHT </s> -0.3010
-0.6021 ROTATE LEFT 0.0000
-0.6021 ROTATE RIGHT 0.0000
-0.3010 SHUT DOWN 0.0000
-0.3010 SLOW DOWN 0.0000
-0.3010 SLOWER </s> -0.3010
-0.3010 SPEECH </s> -0.3010
-0.4260 SPEED </s> -0.3010
-0.9031 SPEED UP 0.0000
-0.7782 STOP </s> -0.3010
-0.7782 STOP LOOKING -0.1761
-0.7782 STOP NOW 0.0000
-0.3010 STRAIGHT </s> -0.3010
-0.6021 TIME </s> -0.3010
-0.6021 TIME IS 0.0000
-0.7782 TURN LEFT 0.0000
-0.7782 TURN OFF 0.0000
-0.7782 TURN RIGHT 0.0000
-0.3010 UP </s> -0.3010
-0.3010 WHAT TIME -0.1761
-0.3010 WHO YOU 0.0000
-0.3010 YOU LOOKING -0.1761

\3-grams:
-0.3010 <s> ABORT </s>
-0.3010 <s> CANCEL </s>
-0.9031 <s> COME BACKWARD
-0.9031 <s> COME FORWARD
-0.9031 <s> COME LEFT
-0.9031 <s> COME RIGHT
-0.3010 <s> CONTINUE SPEECH
-0.3010 <s> FACE </s>
-0.3010 <s> FASTER </s>
-0.3010 <s> FOLLOW ME
-0.3010 <s> FREEZE </s>
-0.3010 <s> FULL SPEED
-1.0792 <s> GO BACK
-1.0792 <s> GO BACKWARD
-1.0792 <s> GO FORWARD
-1.0792 <s> GO LEFT
-1.0792 <s> GO RIGHT
-1.0792 <s> GO STRAIGHT
-0.3010 <s> HALF SPEED
-0.3010 <s> HALT </s>
-0.6021 <s> HELP </s>
-0.6021 <s> HELP ME
-0.3010 <s> HOUR </s>
-0.3010 <s> KILL </s>
-0.3010 <s> LOOK AT
-1.0000 <s> MOVE BACK
-1.0000 <s> MOVE BACKWARD
-1.0000 <s> MOVE FORWARD
-1.0000 <s> MOVE LEFT
-1.0000 <s> MOVE RIGHT
-0.3010 <s> PANIC </s>
-0.3010 <s> PAUSE SPEECH
-0.3010 <s> QUARTER SPEED
-0.6021 <s> ROTATE LEFT
-0.6021 <s> ROTATE RIGHT
-0.3010 <s> SHUT DOWN
-0.3010 <s> SLOW DOWN
-0.3010 <s> SLOWER </s>
-0.3010 <s> SPEED UP
-0.7782 <s> STOP </s>
-0.7782 <s> STOP LOOKING
-0.7782 <s> STOP NOW
-0.3010 <s> TIME </s>
-0.7782 <s> TURN LEFT
-0.7782 <s> TURN OFF
-0.7782 <s> TURN RIGHT
-0.3010 <s> WHAT TIME
-0.3010 <s> WHO YOU
-0.3010 AT ME </s>
-0.3010 COME BACKWARD </s>
-0.3010 COME FORWARD </s>
-0.3010 COME LEFT </s>
-0.3010 COME RIGHT </s>
-0.3010 CONTINUE SPEECH </s>
-0.3010 FOLLOW ME </s>
-0.3010 FULL SPEED </s>
-0.3010 GO BACK </s>
-0.3010 GO BACKWARD </s>
-0.3010 GO FORWARD </s>
-0.3010 GO LEFT </s>
-0.3010 GO RIGHT </s>
-0.3010 GO STRAIGHT </s>
-0.3010 HALF SPEED </s>
-0.3010 HELP ME </s>
-0.3010 IS IT </s>
-0.3010 LOOK AT ME
-0.3010 LOOKING AT </s>
-0.3010 MOVE BACK </s>
-0.3010 MOVE BACKWARD </s>
-0.3010 MOVE FORWARD </s>
-0.3010 MOVE LEFT </s>
-0.3010 MOVE RIGHT </s>
-0.3010 PAUSE SPEECH </s>
-0.3010 QUARTER SPEED </s>
-0.3010 ROTATE LEFT </s>
-0.3010 ROTATE RIGHT </s>
-0.3010 SHUT DOWN </s>
-0.3010 SLOW DOWN </s>
-0.3010 SPEED UP </s>
-0.3010 STOP LOOKING </s>
-0.3010 STOP NOW </s>
-0.3010 TIME IS IT
-0.3010 TURN LEFT </s>
-0.3010 TURN OFF </s>
-0.3010 TURN RIGHT </s>
-0.3010 WHAT TIME IS
-0.3010 WHO YOU LOOKING
-0.3010 YOU LOOKING AT

\end\
